function [Y,Xf,Af] = DeepLearningK(X)
% ===== NEURAL NETWORK CONSTANTS =====

% Input 1
x1_step1.xoffset = [1;1;0];
x1_step1.gain = [1;0.5;0.0940530733259659];
x1_step1.ymin = -1;

% Layer 1
b1 = [11.283336065587175057;10.83883272579806345;-10.819478833723660927;10.997724175765762666;10.983905809051453417;-10.952055162693323354;11.283709395339565518;-10.490307086812070025;-10.988779854229294486;-10.960236497530001287;-10.703269803783181047;10.736569474206394403;-10.568814725357800199;-10.754248551308918991;-10.501122407123901326;-10.751653200458878956;10.14930572429736344;10.303374386680905772;-10.532726285401666999;10.21554415313994113;-10.360659120645262732;9.8601249075089327789;10.417449300538832446;-9.9947241297620621481;10.157668302223255452;-9.8270896215523464434;-10.080073638553535886;10.171608228646443095;9.9395029597439137348;-9.9447468695527767579;9.7065660369937241114;9.7849848662313938519;9.7785987304791746055;9.7386494889549286569;9.4806676233955116118;9.8204186965305311219;9.5213068616661580279;-9.432947136811746347;-9.3634433534952883349;-9.663564542296043669;-9.2509310676244247418;-8.9672662706626713458;9.1541378865922826691;8.9760498097988534738;8.9789718239882052586;9.0914112220051261914;8.9159269903677316194;8.944716430348375269;-9.2051170611085826323;8.6673024694413332014;8.5950260024578781781;8.8913838288557229816;8.9437581503478931211;-9.0556943329285015665;-8.4492065495166226441;-8.7777579594181993627;8.5283474962936178798;8.4969590398306582557;8.871570950306624681;8.2776425068112047256;-8.7163345446581921294;-7.8697100584494972253;-8.3542031583071718615;8.1871945838568169762;-8.4205575011663409413;-8.4186860510125782753;-8.3061572642861332127;8.2518508354316644215;8.2247129528284190769;-8.0895983863058216201;7.9800414375235959596;-8.1178526650817364185;7.2404857610407793445;-7.8672594645480495856;-7.7685675481973586187;7.7034674358886849888;4.4882321376090557052;7.288881185539835883;-7.5530434697803849886;7.1707511304946152109;-7.4048623082045699206;7.5923416161815664438;-7.4414063959050782415;7.1287157519219022106;-7.3430513887005588458;7.5377633158073127362;-7.493226891564010117;-6.9118053555686209677;7.4166016421237355161;7.1866319478734244086;-6.911087426181043547;6.9698290755731600044;-6.8373035958532550893;7.0345722528264005291;-6.926611189892738274;-6.9740267012442256345;6.9614008878783879553;6.7856270897141319765;6.7467844430748815654;-6.701701560653368972;-6.466957384977593648;6.363409621257082982;-6.3209650635680096897;-6.8436818857185279796;6.6244332616944134884;-5.5380943985704771393;5.5810790953840685447;6.0999723280421607186;-6.5268541236262089811;6.1219711595561490114;-6.1144210375353482689;6.0348744977887109897;-5.5572292459375072227;-5.8960639260535723238;6.0410454692757955542;6.2192886560141262819;5.7889802547898243645;-6.1842352751572358116;5.9424561340738639714;-6.0089160632054490208;5.5308974342919619005;5.6389855734704781298;-5.4443919608828252876;-6.1540189419149236016;-5.3920540671896004525;-5.212427675233827884;-6.0942514417188489162;5.2279946716583376443;-5.6243367734189684271;-5.8564803975385588686;5.5969902939366020789;5.1493607758922204098;4.9533321719671654648;5.3393138882679664903;5.147813113649841732;-4.2959538041699500965;4.60120547419852155;4.90431106013597784;4.9679384232831713675;-5.1858781923296115579;-6.0617869821858016977;-5.2490726842624999549;4.8459814280241229056;4.8951541865921317509;4.4841326239900531903;-4.5557967532850405235;-4.985874884584022837;4.404007545106761512;-4.5995896195379613047;4.7449310494017495898;-4.9011187690719228982;4.4597877478719984978;4.4523869452403443958;4.2570301506700376493;-4.5251701906001295939;4.1195621008484195613;4.4662019229663467712;3.9358229431768259055;4.1782584759394936214;3.9752968983305470019;-3.8487601756703053724;-4.0280764316758448373;4.2676736117420741579;3.7220782508337859618;4.1655109308503837084;-3.8148899114485974593;3.8032616056193915277;-3.506506223112198839;3.4826179599571784884;-3.8553034299439805643;-3.2765744554490767726;-3.4289509055067886045;-3.3886380906697151083;-3.6479689002849191581;3.3661158650371856282;-3.7026974470234255143;-3.3660572032178235347;3.4366524347840470277;-3.1330437329577698335;-2.9182101812475074176;2.2742792606255526344;3.1354459593178329868;-2.7057934337426274851;3.2450311844622934387;2.7511128583825903426;2.3929465041201773978;2.7441775888845878484;-2.8485205141293916675;-3.4288009846196159103;2.5730742928727936558;-2.7608058880243411259;-3.6178457925249798421;-2.5946779514831046498;-2.5743879482161982075;2.4922465944073870503;-2.5876116563506696977;2.5218500289335867848;-2.4111204889840931465;-2.6813404044744602039;2.2536420170045552425;-1.9872090420792509757;-1.8274532620936503324;-2.0366374569679868145;-2.3267329627356336808;-2.5006135106145475078;2.0559486484193265632;2.4786925689230119296;1.8391763675814549739;-1.6850763038667750937;1.8728370518785162346;-1.4598245046250608592;-1.8288055340586646391;1.2212008220777879064;-1.7200922354036745077;1.4382435598044427394;-1.035486353234494894;-0.9453060317294028625;1.693547848342680906;1.6031957287916427379;-1.5436748681943974759;-1.295487214511213292;1.2330104243545645382;-1.3987700746358469051;-1.4668039742620919696;-1.2431365604054660512;1.1829056942090541149;0.97693628984807356908;-0.72870393054098003827;-0.46912797169851783163;-0.48636559790674088744;1.2117079534385055695;-0.59124066941661523877;-0.96030730752380089044;0.56704725872850469948;-1.0350644650673361813;0.55074543118036367595;0.64571192396897147958;-0.57269691104953179828;-0.5671617196794884741;0.40887581843014642047;0.2373944282773706449;-0.23546550989238335116;0.2140022314395951808;1.0460582917777647705;-0.40976905127251334049;0.040515376617534452908;0.49790151353485029295;0.19707994349119609123;-0.1158651354812450518;-0.072993112793272280081;0.46948517364288322451;0.14710411096430903166;-0.16025570473667646865;-0.31279236068958010675;0.50613696131280405677;-0.18243276352337414736;-0.63181854610050136589;-0.38746795223642654937;-0.33307063117855306711;-0.047053181982890053547;-0.40331801945288237032;-0.50953598574853253833;0.56994032332076782765;0.30802311572139123852;0.81783935141146490988;-0.66881360505837739172;-1.0181946062386317831;1.2934271807933883647;-1.2788172457853488329;-0.97654066470700362501;-1.285572941996108387;-2.1786183240254657356;-0.78404766939771630696;1.0286031131827781948;1.0550876843484060519;-1.3555780530030716591;1.6048802217060711417;-1.6316276706992327572;0.3564766032507189486;-1.461993051473664984;1.5744909770444590613;-1.8840968466382428392;0.97183607217817291613;1.6806603323027520247;1.7910214656184231252;1.9830242856566524523;-1.7717126635540765278;1.8291316114867366416;1.4243429484253691264;-1.952192395682745607;-1.8743987569670619298;1.6779273045471154724;-2.267600296267353599;1.7147902355363420224;-1.7392659336144833393;2.277427916855642831;2.1542142939197486129;2.1649461816727892938;2.1649833379604888073;2.2976242655350840316;2.3247593219739068893;-2.1954191246114809211;-1.878144298103800347;-2.6935105573078894636;2.4047372509460718248;2.1680361073352498735;2.5541126016435091728;2.8570311004140380717;1.8702504136857323047;-2.1181595432875486296;2.7439744998464150605;3.1419765720100372164;2.5285532137120414475;2.3013553286025225653;-3.7274922534326289103;-2.8973883957971571235;3.8667604206670627143;-3.3025705553394240077;2.7897282150572078052;-3.2481384049998225372;3.4479836201642326543;3.0941374266417591699;3.3904270191902705633;-3.6948049419544788385;3.6293032832933529441;-3.2763202517771232714;-2.814815410687258268;3.7963455619264547813;3.5434380433384440323;-3.5243923895949627045;-3.5381957206619407685;-3.3030835478736699784;-3.7389895598489921724;-3.662122280997313517;-3.2953238462612919335;3.5018284858670263304;4.1139709368671972811;-4.2667739715652261978;3.9364499618476727072;3.6892475792347272368;-3.9165906596431749875;4.0247734104659134147;4.2006580802298625343;-4.3903978183099692245;-4.4706699706207482237;-4.6081656327071867096;-4.4513955919484731183;-4.1689790325933229198;-4.5673235428587384277;-4.4222969884673295482;-4.5463492262043940784;-4.8557686872493119878;4.658028638257647458;4.6018261755648177669;4.5714323267366543391;-5.0479219177267831142;-4.8283961579363543493;-4.6924692183886991259;-4.7203053285793679095;4.6920099511461730302;4.9694549425480492033;-4.5822460138557827847;-5.0371353550555966194;-5.8543030032625953396;5.1020053947010719497;-4.9084695593766536348;5.4385529757272310647;5.6069977306089162639;-5.1186191348427430015;5.6790258325595921463;5.3021088322386962233;-5.3404226755297630191;-5.6706035028798629227;-5.1605793831007176209;-5.6398012999496227593;6.4096569489776049622;5.654766142200256418;5.9634784449684294927;-5.6504565351074873547;5.7683443913548977378;-5.2656436438006126721;-5.5638257651123206315;-5.9061458942657978355;6.0052997210011564988;-5.9563333639347320059;6.0953526159684372487;6.0417985071905020433;6.2481559567948190548;6.3480617454446885972;-6.5782176730769608142;6.6728380662215656116;6.4506233056169550721;-6.2742790323379340478;6.4053239660749259343;-6.2135432509070440688;-6.2085574440880968439;-6.5936195349709860736;-6.7563434820961445482;6.7201481423639961577;-6.7538389257613840044;-6.7232642792046348745;6.3507298526152613505;5.9098169756332694647;-7.1061184773780352586;6.6283146675962409944;7.0197148477859521165;-7.6905994577665302003;6.8506962784875042871;-6.84876891690255718;-7.8107006962937912675;-7.1302447363285779147;7.4853766502680674222;-7.3964097259902228387;6.9632149147968132041;-7.8259083986955637613;-7.263522623492750796;-7.5140223862643633623;7.8146376792120229027;7.4117700582717702673;7.6205128983260044251;-7.9561802091449571606;7.6714618439716790732;-7.674049399506454705;7.2504794184571679239;-7.6364157071692080336;7.3624138803253593721;8.2523875740518075617;-8.1954369257591039855;-8.1287604637689732101;7.9984970834027553366;8.0557067888610074391;-8.1618619088461041855;8.2158943255982741505;-8.2476978246783883009;-8.1011511802317119901;7.9837732379364281243;8.5943987162874435626;-8.241301522487679776;8.064806153446937742;-8.5608066576457950703;-8.8384514389253876487;-8.8733721930196818306;-8.6464909173815041044;-9.266466863643668006;8.2107662605660323152;-7.7361874528174299215;8.8670502958143782024;-8.8590165890178500518;-8.6604098301077634403;-9.1998226063731625146;9.5693737408663164246;-8.9747016568083672894;-10.35174900485141869;8.8885713109107005181;-8.8687762470037441176;-9.1425989874258331014;-8.9802381167867313394;-9.3072468560331227394;-9.5260701628952801912;-9.7104191261365784271;-9.1262085662561691635;-9.2478720555279227966;-9.3707012141521719428;-9.4182753756355825914;9.5533863978586950338;-9.6108921431992637707;9.6444754605266602709;9.2658291822245608671;9.7274919482303854323;9.7946857386957209002;-9.7974051227706731027;9.6520044040249199924;9.775388275534455218;-9.9855637680993858396;-10.117146959589096156;-9.8292401019101074411;10.398182779671406806;-10.413260993734274606;10.741075897174702902;-10.734043647344549299;-9.120014096275486537;10.788092883706520198;10.129924622044800486;-10.41485581224698187;10.380928339491934054;-10.815614852872915463;-10.511386046633557356;-10.86577656948172077;-10.70783047197102178;-11.021399624397417938;-10.570707255909237432;-10.858169044158429983;10.902262796589976546;10.81101567863783508;9.9935922109488206644;10.933550086995209583;11.151025175608213047;-11.447792500393081383;11.088410576244665862;-10.855405792921748898];
IW1_1 = [-4.6753508883743304381 -3.2085487042220255383 9.1376179423194461293;-10.922250032764603489 -1.4785313437480036569 1.4722194826789758437;5.0670101478828755148 -5.3581179854416465247 -7.9343470448492379177;-1.785835115876504231 -8.0281925695568858714 7.2380076948197809017;-11.045101786889723883 -1.4345530121721010719 1.7997836610460506979;5.2871807425444750095 8.0308786472483806307 5.3754424704137973023;-5.7926723976506382385 5.5025079073787308559 7.3121749974306071707;10.692567448690017073 3.9074022578851632659 0.86967826946376947106;10.502815702915528462 1.8972473967390806049 1.9892472647298315991;8.7915717946391112037 -6.0574025250089835737 -1.7803323135201016836;5.7211313785729842607 8.9317865008654084846 3.2227463527104314167;-8.4954129546879055823 6.0970853868295149525 3.2559245883104557251;7.5392124104317046474 1.9759658843451102239 7.8952210302880931891;7.2794819424790313533 3.9835027830116498393 6.9590666530697378178;7.0108904000871383744 -8.1833193044835130792 -2.1653744939417638449;7.4498584235054083891 4.9817060312537808642 -5.9154733250984747883;-0.035577801909255260537 10.160713616488541433 -4.9024002213672375206;-4.4727152760956432331 9.8307003124152636531 2.8172086396967661592;5.0778456247922019173 2.7966772307426377431 9.2277656064395863211;-10.196035572093986588 -3.241029413655189817 3.0160254267732793387;8.6506454286645979579 -1.3731473474520263789 6.5145788360524798932;-7.0563781462202097572 0.14564354177245428246 8.8611933723464773038;-4.1150973410922100371 3.4368204879700305909 -9.2315212663798345005;3.0794747192203768549 -8.5352631489007890764 -6.2117471664842467405;-10.029591026946027554 3.0464959670778157808 3.3007657595399484407;3.4299138414667007524 -10.399336459901194374 -2.2553510232621651888;1.6378898480156840467 8.657304690537523939 6.3794640322646847252;-6.78263897627778789 -7.5004729801243232856 -4.0190518321628516674;-9.9617263312487196458 -4.4400755460341354564 -1.1924284291031874705;8.4107300747178239675 -3.334530620766224196 -6.3581446994128905104;-6.793754245168631023 -2.3483250843359475546 -8.5367818831451618422;-0.114798441590779704 -5.4132024397475992927 -9.6560962958788927324;-8.275280864158293781 3.2740797492104394273 6.2466146095124210902;-5.2076587716806876927 -5.4215527503802576348 -7.9607094086148730838;-9.988422963019873535 5.0554565444746959457 0.45095201099096499098;-3.7017920603384553146 -9.8927692450795650103 -2.4244646071882729466;-8.9473713417964084726 0.51872382805666406025 -6.5331192971185156892;6.9485691672513789641 -6.5257275863804808935 5.7142033478341840436;5.7554436284565131388 8.5490218228341436912 -4.1954625167478472036;0.17923166110826571629 -11.022360941921656163 -0.10127698103786567096;3.6232763477193601354 9.6152743564945044596 -4.32974763854530309;6.2577565929119378652 -8.3281810988430571285 4.5141306695913705482;-9.9269059884541501759 1.2155411879375466189 -4.8362437094310095631;-5.1886226478287182928 -6.4188765469713535694 -7.5520942170633933443;-8.6633027636201020982 -1.8604104881921783576 6.9444591010289009603;-7.7409289325184946762 7.3526379447591256877 3.0705789084807784128;-1.7969133663896215136 -8.444635019483888172 -7.1985638888081142639;-6.0469896732443153553 6.6347066772738783058 -6.6268237879768978615;0.27995449619407847264 9.7783832684680742631 4.8377704075650509452;-4.2714979250607347794 -10.297658277445187025 -1.6794929418641755259;-9.038470320992475493 -5.7853305417183200632 3.7298064247014828254;-6.5707929176250488013 7.8025400995284082128 -4.1825616913734728897;-9.279263207871544239 4.2341680350642505459 -3.9991570102417299815;5.5669725586168086195 6.005282362276465058 7.1913438961359270607;8.8680711273527421667 5.7023091314328571144 -3.6796145182639743432;2.6568099346426183871 -8.9899461648147340753 5.7263809351731076447;-2.0130302122539558418 4.0152068857749156905 10.177294202680824853;-7.6119056005145013799 7.7802509010341260876 2.1327469051594665217;-2.5846118534278588186 -2.9380654712597413791 9.9888579413856906086;-7.3457502163739167855 6.5558468662003317462 5.3821706680956680202;7.6887268803671391382 6.6261827652461349203 -3.9496249398093690175;5.5454087924460262471 4.7133323791277899062 -8.8870709556609135404;0.44504575007270597009 7.385186691572983797 8.2611731187053454306;-5.8733099813235360998 -5.5707360188139114499 7.713120687863328051;10.262731627755739439 0.98465459206667116376 -3.689622451448019369;1.9273714160598440781 -9.088752784918812111 5.8193085205435526319;-0.29769102726432894457 -10.489021779001369339 3.028077872975685203;-7.9622133019112570906 7.3948932179480371119 -1.7793730687561317705;-6.6013765545325311379 6.0613529902187490706 6.1698084526046752529;4.3800686710302789706 -8.0532701053984201423 6.189892392454536818;-2.8557650263129183976 -8.1033136029598544781 -7.0368805816087398597;3.4288933679230275686 7.2444844937292902642 -7.462887749656704095;-4.3212956114927711937 -8.0892225817299738821 6.8949664185815970896;0.81844487899253903773 9.3182121031336588857 -5.97490066962781885;10.562407673933508434 0.90585182354277637984 3.4485368929214272882;-7.4312195088505683671 -6.7483889464460755647 -4.8315597367276277296;-0.86420382120719763108 -0.90922781896678561697 6.5634113891850427436;-0.68186390630234017252 5.7288826754187427426 -9.72571620395337888;9.425510535283200042 1.7861497378635946554 5.8185058842919659128;0.25933713386273338219 10.618909477840261957 -4.2041260232110033712;11.158754130543158567 0.08301971477776290409 -0.88620689163835586477;-9.6270701520649915039 2.4369643685503512565 4.8235327403489556275;5.2123319139301962366 4.4807611554253519159 -8.4218723311629837269;-2.3140395427033877418 4.2183632697819497537 10.172890517200357863;7.7645523564987080078 7.8870448095891294571 0.75026489631060155894;-6.9081958806847749699 -0.38607390589657875068 8.4464569023491371524;6.8503028902900053865 2.4342014401311327099 -8.231166632808188055;7.2418727994506628676 1.8105604920855422613 8.5239072842148093656;-8.8419930744739474449 -2.8122046729474301507 -5.6596994480711364517;-6.3276191074972674144 -8.8460995505118944493 2.1209202997114444678;9.5457188593388817566 0.53543144473022896701 5.7173711278225436416;-4.5749191273492071375 1.5169871719658032383 9.7708159116131820809;8.2474355834741999161 7.1964670991885100193 -2.4831211617470732023;-2.6735638295430383948 -8.3647201784064577623 6.681860093345838969;1.3051733940018945823 8.3833537504813762098 -7.1364260323879760151;5.6211628758704064168 8.8206286527183923596 -3.5587143679735580015;-10.843112791053217236 1.5293228780803385103 -1.3927355814805220113;-4.7540951989633866148 -8.759700096674491121 4.8478189957314006264;-8.3369147946562289775 6.4749639703752377429 -3.3711346255808827266;6.9791059558359718196 8.4119174379142478415 1.8214177713516310764;2.7744818290681338979 7.0840263082853001109 8.1770646713281269768;-8.5794450872562126875 5.0941892929600527395 5.1180281341711699739;4.0291840283967665926 -9.1139348896010474732 5.168873503249320045;6.7248278308486790777 -5.3064263525757793261 -6.7323357829586898404;-4.4181095166693848952 -7.7622405905985809582 -6.4242741753287715412;4.2291467751413236442 -0.10108319623628472805 -10.300287340341581555;-0.094748141588534104396 10.228269328691775186 -4.7990661217854908571;-6.6777895304940892984 0.24620550008660041508 -8.9939710904031020533;7.8051133444713247655 6.8698577997556338204 -3.2510961356591843163;-8.8875178758386894629 -1.0373011359056742986 -6.71588092306365958;5.7863112022066562901 -6.5743351245121246507 6.8851120340805911368;-9.1110823133576204214 -3.1351721302463015917 -5.7095685880003141932;7.9878042446322217174 6.2374034191376246383 -5.1578084302742350786;4.7122320376014812382 8.8834862525844737746 4.8850716166009062746;-2.5503296413637976947 -5.9559777286574311361 -9.0238686072835978536;-4.4416743513823400136 -6.2494460773139373089 7.7636286256066426859;-1.9866543067150423951 3.305747502318024722 -10.506859420804651961;7.1087100257381115043 -7.3899627743328055729 3.8165189922681221901;-4.2960332888641374893 -7.3664206765893549544 -7.0452862388303723051;8.6935244846737678159 3.4703537193376612358 5.7100507578446739743;-8.0219560202333486387 -7.3633552610615122802 2.4536260034077645997;-10.786528554159682258 -2.6936681223053078327 -0.40914827660007013765;10.158616954837832225 -4.6977861322384191212 -0.96213935163172792375;1.6204321027897559127 -2.212729551327774935 10.437747714687715117;8.4905739131845319179 -6.2608593012670343825 -3.7299182484165736007;0.038535947421985967953 -5.5806297724272253546 9.6139689241701020705;5.5860636671988244117 -8.3209855111716919396 -3.7236563956752375404;-2.1761222074064696663 -2.6447950411698073481 9.3862085825233521064;3.3143797099542635642 -6.4429483145652328702 -8.1875960927262436684;1.2018720679366909909 -10.735576069482728911 -0.023084768487933331194;-5.7874793054162125827 -5.1124574702864915565 -7.8064211769819502607;-8.8325040135627936877 -6.0469984623099310994 -3.1485127111683635093;-6.5983653013381333707 8.9860218991689730927 0.72462152943622093471;-4.7610567116204984828 -5.6686578088559285149 -8.1680703819333313476;-4.4673733977168996745 -9.1830355499634617189 4.3366690380963390794;3.6388370326259340537 9.2131425418948698081 -5.6680855265945107035;-7.5982801725451194486 -4.9275985262841048851 6.7358985906784445419;-9.7260436499373614794 -2.9483516793442103854 4.4943299765905821985;-5.4087163310811083861 -7.2379425015810472388 -6.4467773155843657307;6.9197268932789146589 -8.5588251206813055205 -0.27117734050451453021;0.056446705708126022893 -10.199910103683089702 1.7608394771137760859;2.0569640184813415829 -8.2762644400244962384 6.8087795552434080548;-11.058878780313307288 0.17031377417332188573 0.61287623322709183782;-4.4368189881407635866 -8.7112275615175711607 -5.1109416580941271491;-0.2518244935680508112 5.6487592242934798747 9.611872245968287487;8.4231885775485793033 6.3237462364520089508 3.6186897839036169522;7.2333497816782710288 6.9243233495980236469 -4.2424922085979872577;-5.0730508610209792408 1.8779786522666763737 -9.764695772649053751;4.0704552384161960532 6.6523212474148030182 7.8465753746577835415;-6.1777072702627693346 1.9913480799655045583 -8.8304551868641958379;7.6270921966286664428 7.4743984916886825332 -2.2031556086775285763;-6.6868983599612032975 3.4861935705548017239 7.9006530799690350975;-9.3703863662997317618 -0.70487290756308751405 -5.8099491930064344203;-8.2993312531383729436 1.6327187121733031105 7.145204245504647389;3.3144236177495431939 -6.823284982293193579 -7.9108070934030179089;-3.0993264568115970192 5.0283227023664567312 9.213492406443647198;-6.3272021054118123828 4.2928131967896367982 7.9290235689420089926;-7.9793304395887281188 -7.8062203807079182383 -0.59794765423562423745;-2.7728748056593639504 -9.0970129453517856177 -5.5756730095436752848;-3.85887829837765306 6.0577416154441383611 -8.4964460861515274104;5.165371715586694279 6.669040292183139762 -7.139574886704734169;8.2968022383272668208 -2.6850762761984463545 -6.829807012808790212;-5.8169426619229502862 8.245448277791073366 4.1818638151299998285;-7.1455049973872748481 4.7136694365197930878 -7.0186518426364150613;-0.59028085989095513408 9.6748392480992571052 -5.1392175067779435338;6.0556919647006406393 7.7059987787946671034 5.1232296478774195236;-8.3657642113518626559 -3.9017972045143345383 6.1462581380485392657;7.9397888086557886211 -7.3859706134967035851 2.5363227593768220558;-7.0951827998011198773 7.4229269687010006606 -4.3622492532427026291;6.5237613592695922193 -3.1915500555586806541 8.2782648839894221737;8.0892611771860423175 -0.44571155954860586235 -7.5282242752205217329;4.4070200520345688133 -6.2025964020499122498 8.0524102150268728195;5.2893197714248749719 -7.897678459485088176 5.7916741723427573874;6.5615167496978825667 6.1106417865151350099 -6.3023617534537823559;-4.6864177387113894468 4.7846365410601796597 8.8474883754190347673;2.4270083322561544215 3.1107759016310696509 -9.1575267101097974631;8.9922329946649028898 5.0552509300968608841 4.0342111764542458729;-7.9005992150871771074 2.3195863105401066662 -7.3408949161915240111;6.8997483578042064778 2.9101084519701001518 -8.0174765003008339193;6.0316715419636564022 -8.1805492454858246276 -4.6002622973856501787;-2.9247917286686644367 -3.8014737974561803036 9.6299978161047814496;-1.8072790986529208013 -1.444848447330727037 9.7131633263995453831;9.3610009620415883802 5.9768925176821348089 0.45265107712283764174;-6.2352910508188879035 -9.0757616142457440134 -0.12236344158240250457;-6.2383935072009641942 7.1695998659470081549 -5.822488242340083886;-4.4818036141398724936 10.245119367463104254 -1.0579545926353144392;-1.4858166761307283199 -8.7694776343932794305 -6.6278905963434588955;6.8963148168530628013 -3.5129660953318597727 7.9118577887398675585;5.3938129882067062937 8.5583756652507325668 -4.0246902640987762823;-7.7865811952269812224 1.0207107440146063748 -7.9016888477479865216;4.6874415021116142555 -3.1093931425030612026 -9.5308196730818064424;3.7809559428674339721 -0.42077953750548446887 -9.9295446743275732615;1.3705026550386205653 -9.7567727453645005653 -5.087035459331548104;8.4172707757396114658 6.7556683563847172991 2.4161410686827355931;-2.8948347507295966174 -4.4722611506946545745 -9.6915488420521533897;8.1102008268173815253 3.3452586539724342707 -6.7976985777178127179;-0.83965482947360325916 9.380380979044364409 -5.670968849786024002;10.688360490686836357 -1.794655563442000501 -2.3914174197585533754;3.8579379613267463789 -9.0311253872864458714 4.9343439021772530495;-3.0205648064714187839 -9.2112905671359843751 -5.4122829615565510863;9.6891164586568727657 4.2055866203470477771 -3.3247390207237872417;1.7995018705744045828 10.449553299953256769 3.4548768861863088375;9.4137066085368950041 -5.856250781383254278 -1.0095893203335453148;4.7668689840108982025 -7.5400632084045469128 6.5621165880767664547;3.10024842593574812 9.1108357697630371064 -5.3548525984459089955;-0.71964163566777072933 -11.019112343262813525 -1.0767682782104825989;-10.835283673303408136 -1.6703300727615584265 -0.019840296887071451337;-10.494118965784396735 1.931658033290622134 3.0431069135690864691;9.6865205983454298888 5.3468189633439466846 1.0443810225944962777;-2.5002336738725787768 9.6398837950483944326 -4.9630679675842079845;5.07688260567635119 -7.4129684163199058844 -6.6393164140898317527;6.9379788236519832623 -7.8058044167034736915 3.6858117632604816549;-9.8972266907772290523 -4.8004815462458880759 1.6368860582447373186;2.9920357427798109917 -9.3606277961335884186 4.9911197207006861021;-3.4798053738641816501 7.6820634929493190057 -7.2261493299930625867;9.4148478909959116834 2.8972528427558477127 -5.3984774017984538119;6.0460429579554304524 -8.2383270538287742824 -4.3914203535545217605;-10.97639429514502929 0.11996736956455081313 1.2473476715410201088;-2.3477326197515595574 10.740861422669444991 1.4144745729030214765;8.7624714351170691629 1.5887011570332929544 6.5945191477557072446;8.3181151737512522004 -6.926975716950202866 -2.4829085913913782058;-8.6206789087482533773 6.4989155135010845399 -2.0046168735838132413;10.411232024846587052 -1.8529321998708956354 3.3404811235177458428;2.0177011777211686372 8.2021027767574778977 -6.9914094343658179653;5.9799935211546495495 7.9832095821367010657 -4.836313678630100199;-6.4587047964111858889 -7.2137851141879103523 5.352463512919888089;-5.2109761142784503107 -2.2459932603423440334 -9.508664132830780602;6.2465237150960417623 2.8103295074301284373 -8.7556885850253305392;7.8660683658187533496 -0.05950809778869168426 -6.9055822056592841562;2.7510272601973215778 -5.9419238007706161042 -8.9542219634219240021;-7.3219800944831652245 2.720914524164528725 -7.8398238051341460064;2.2078727067723527 -0.68073552807807524712 10.844722571169738146;6.0339145210266025288 6.3253935486353647377 -6.7780383595276250119;-4.6872611560266648212 -1.762018943476528543 -9.8927205409860246021;4.9927846513836549036 6.7172740594924809088 -6.8191084828591694844;-9.5257338413333307869 5.5749107761874405753 1.2937193263905364393;-7.229972148098906537 1.0522518066222872335 8.1530911068264479979;8.4466658533281879784 -0.28403392448253372837 7.2230302183691863505;4.6686360500570360799 1.7569433025077789701 9.8533480300064546498;-8.1589987383590862891 3.2166930502915076495 -6.8204723102284123826;-5.0509491049044150657 7.0393098089301879838 6.9687842211323545172;3.9798012582557955596 -10.346842319916881081 -0.65985985103080202485;-1.5912977115135906736 8.8139016783641110919 6.5725889319184336301;-5.168243739146705984 -6.9487484657634217555 7.0178405043402305452;0.99384338728373611271 9.7309814989111682593 5.2495352645195607622;-1.1078134005399975504 8.054875141915289305 -7.3733711378529953606;-8.3148703970070911851 0.059484704584956429874 7.261087816815612328;-5.9924591681364347551 -3.8148437062405786691 8.2575267212014473728;-2.9635619819561727084 6.9615138098634332664 -8.0533104528790460108;-5.7708212047584028781 6.7512388571272072824 -6.6349706048798520186;6.061473183128978981 -4.1876641154901976805 8.2551054158831700391;-2.1323947769056887935 4.7387944985205727733 9.7728938166464551784;-8.4930685507461198824 5.0293364260184230119 5.0188982801859669536;-5.856498715352205231 -2.0590045127942779857 9.0669941708601573538;3.995206213106384574 6.9187022031022165081 -7.3663357827018458579;5.4767267974436695255 -7.3818488271546547352 -6.177877033151970565;-1.1476498703817632485 7.3122880410444812682 8.2353569145342255808;-3.104908078110443892 -10.286852230086321214 2.7217511245457282065;-8.4202495608683420869 1.6842239223760133715 6.95474123909808295;-7.6481404054845301133 -5.5796932615244854148 5.6695895635248607647;-3.3089134309696497382 5.2463987480389606688 -9.0708354564215358806;-2.8164165489953822963 3.2693246215722950865 10.227294707719199351;5.9516219458430539291 -6.7477067408184172592 -6.4823921053916340185;10.405341718330220147 2.6958008673302340519 -2.6810817977216716557;0.4424855197692701414 8.5003390269753573705 -7.0678137718901217212;-0.44885185813057537629 -10.422701540398982445 -3.8289839480142386918;-10.891658114445805339 -2.1662483595769237432 0.45577888079298545243;1.8806849396468265923 7.7442548628376188802 -7.6720666782790969407;-4.272689717822882649 -7.4036378529937607595 -6.9714647505460067833;-7.060010220985335927 1.9000868825228491854 -8.3452667598081760048;-9.4204964242084425763 0.31772505931306277427 5.8455447656920238586;-3.7614451076694801479 -6.9168674061534760611 7.0581418440530443448;-5.881496646473949319 -9.4046152897886372557 -0.47141028841042714737;4.3814697922616083758 10.140040750822139515 0.73591618960591753673;3.3745793238732479935 -6.1853890656684082927 -8.5616924607953812654;-0.090067430215807195437 -6.0586975675137670905 -9.2276956203823026215;10.797354971401755819 -0.2094031283763607143 -2.0265154037463268821;-6.356728139157456603 -7.5516897139366099267 -4.9800598209164013142;1.746200576667402693 4.169732364713881978 -9.9925970640716528237;-4.686479838545682064 8.3245568796257956024 5.6271249618860803565;1.6110090713270501794 -7.5239860077358970969 7.5856680175340764904;-7.2440741915281385843 -1.1933554127277701262 8.2668832099385820555;9.6971690353153494613 4.9251058680792745292 -2.0284901768014087509;5.9600855518529911592 5.5079830871240087475 7.4583552350214139537;6.2921016145617274518 -2.9757870447664998004 8.5050857462290121447;8.379651790659128352 -5.5165359187510558669 4.3426846810520034481;-1.5570048709618078409 -10.819411834553097407 1.5860133098365478688;10.032010607978465444 -2.6369631293175155307 -3.845447345925180116;11.054248746979528306 -0.88846725531530368336 -1.2869600501841991225;-0.65879033445818824255 -7.9743800927087153951 7.1451340797442792763;-7.3351006863255667767 -7.1926904337043922055 4.1718335382389319932;7.739136530825711624 -3.7248599282168530777 -7.0292384767464382023;-6.5140150085876475927 2.6951340562152732439 8.3373745189940464684;5.1655774998943648768 5.7072585612622468432 8.0658513157892457457;-3.5318104080442855874 2.7407180291383759219 -10.199722332143883463;7.7540908778537058765 -2.6888867881874416454 7.3833930069061874946;8.5181250855659893517 0.29355751166095384042 -6.7675427559211973616;10.618405554852868633 0.078003041624316801772 -3.1776255492672502712;8.4909379392543140597 -5.5255480378048318357 4.7357482848865730674;5.0581487157041609137 9.3548012428398070739 3.1330753870768601743;3.2646679435744561104 7.2737600280163041688 7.6640025625258827446;-5.1825604994167084882 -1.1748653360350762576 9.7723733049895358249;-4.8353902971655484677 -9.8108543307723969917 -2.5017421084786231056;-9.0711721492019581348 -3.3326318301086428342 5.4378113455111733998;7.3974017000302376701 8.1650732811389268306 1.1810708028126863933;6.9663186663698324352 8.0291951477259058123 3.0970500959382185613;4.9896704673768876859 -9.089790984432159604 3.8316914792700815795;1.2745602991250652991 4.976098952672635356 -9.6259509358436172732;2.0910273912492964854 6.3421434451746110383 -8.9210639391758324024;-8.452266704316720336 5.5036609709076671493 -4.6335817396095739795;2.4791918610266008294 -10.736752805500373142 -0.86272435764744936915;6.2389932329517243659 4.9999645098622256256 -7.1686958744616102734;11.030961845620710804 1.5586825821613945475 -0.77945557620802385923;2.3791930833152283853 9.6944595730953828649 -5.1496231374824086302;-7.1706823677237272463 -2.1228991218060850876 7.5210466819128329874;-2.7819348772510799073 7.5799838513966619757 -7.5243380770035699356;6.6133903544794154783 8.43607560827683578 1.0262757091682919164;-7.3609943417798948673 6.9505683776968139043 -3.9709294167360065231;3.5705112292001874863 -1.1041420278672666733 -10.499093115867566439;-5.9966780304327995665 -4.7204551424056573339 7.9493460343917616839;7.5674180610082641962 -6.9276563702786226884 4.1874579341811264399;5.2871037778307936605 6.2626991223676249376 -7.5121276505115659461;5.5142882795353225234 9.2547914240320778845 2.4574744871333273899;-7.7706525442140144122 3.0643217799705606552 7.0227413197631340935;5.5166214844403347328 8.5269972538770630877 -4.4481501999973049877;-6.6111485381033761044 -7.319530777810069111 5.0077543535872210967;-6.8603539238871737993 -7.9726982074574683779 -3.9391374055483270311;0.33092417694963532915 1.8581493615834379085 10.771644250845431756;0.82803758320594844644 -4.5847420291054516994 9.7030285850692319372;-5.6967951506211491619 -2.2260273914584205457 9.2669620570792332614;-3.5134543324146303434 -9.647658108215239281 -4.2708727017507888135;-0.30611193366124972437 9.7920497387039446835 5.368591761995173961;-6.3776063514741307969 3.6364438795742044519 -8.2630297252077173908;-4.0154670298143813056 -4.4258969839916506572 9.341522004302678539;-8.0194466998340097064 7.7264225308351841548 1.4247005902193106142;8.4784820978556467708 2.7501684025292876257 -6.1942567085428716922;6.5840808742233498663 -7.4110128098457090928 -4.7658778656175808663;-8.8915480852802470935 -1.250617065146325313 6.26300760901660869;8.6092371674346388488 -4.3440253195216209647 5.5142587917250711627;7.712162522325580305 2.0684593408782583346 7.8407276216375008104;-6.6654933694041638148 -6.9829654094871100867 -5.5810471131068890571;1.7741070310668753951 10.751594275645970811 -2.1108847856015025002;1.8734492595449716568 3.9261033664095035256 -10.138987167539273315;-9.6268793473754978862 5.0051909392667148779 -1.8128044186413390104;-10.805798977196879207 2.1807402030498321821 -0.094808314902575574479;-0.78236253245485110064 7.3309618191897980566 8.1600075374993945587;-8.2129356097334174081 -5.3192478428631790877 -5.025609655125192532;-5.1701219719951474474 7.2740738875332677793 -6.6697763697843717168;-4.0646367570448154183 -8.5026975107580344826 -5.7103004102045984425;-10.035730707456870903 -4.5934934664770432633 -1.1448243252221736999;-2.255094686826380368 3.8300650717681565816 -10.137198177959254153;-7.687002998494309125 -7.4642265705680737042 2.0714365245951644745;2.4353164694468838469 -10.052491487525664127 3.8045086313324412153;10.434350014732785894 0.96825099401016623268 3.7022973916740742339;8.5441484943406749153 6.7112656019732686019 -2.343051052162206993;-5.9348047748488381714 -5.2017166785820627695 7.381630931907063875;-2.2914387851642623595 7.3978933216589526367 -7.8238826721171470524;-6.4328115930659226507 -6.0285386473655773187 -6.8123943926934140691;-3.0602207024845684558 -6.8148896518620807328 -8.2520237981995485654;7.5532726330364470257 -0.65425503276553342857 8.206391558479294801;2.2954099945628132495 -0.12471783107998439533 -10.806778386761902055;-3.2380492289715445686 5.3183982853379152544 -9.3785565508018606806;-10.669676426215161769 3.073295397113313232 -0.30535686979421111653;-6.4335749213015160919 3.3297086337111410081 8.2185610519821157283;2.4074777246727707691 9.7974767211097137931 4.6555855067179470197;-7.7299900070943152741 -3.8993497284025555594 6.7511892927364938188;2.7614140402304583333 -2.4848044625600604896 10.290877941408224316;3.7127905457614676088 -7.0328468839305404714 -7.4879216894687363748;-0.88037350121488411325 4.8957392168480522443 -9.2309192314861334694;5.472440011233608459 -7.3993032245469105845 5.8255256276169911089;9.4451653325616184986 -3.2138673157387023238 4.9349998853924645914;-10.697912398288545788 -1.6868449330801025265 2.6614371860299836925;-6.718482894850864362 -5.1125278717204967194 -7.1358532739491531416;-4.2216085664225646568 -10.431573116135048451 0.65270873756879077554;-0.51634098444654696891 10.916212910006032999 -1.6162601968776717509;10.554669487564407149 0.38428536730411899658 -3.6781283933631727656;5.2615384391118080742 -0.59602724517311411745 -9.762823141433223384;9.6533568477367310834 -0.59866051030898159713 4.9504175339952061208;-6.7014413380033817091 -5.1064768157259434744 -7.1075293093810287814;7.7535291739646208242 -0.036609721223291473435 7.9521475506451659854;-8.709044034045732019 -7.1499578677997908116 1.5510506624782030016;-5.9388687562716553359 -8.2673998375060637755 -4.8606932721753741689;-2.654531599842230527 -9.4697712523507480142 5.0361191560459470651;7.638449628221668064 -2.5731310468450376838 -7.4946643743956427031;-3.9661700750018198391 10.104172578286302553 2.3954983705186703169;3.8995921991676811835 -1.429468532504239997 -10.285671892316328169;9.7827264453085582829 -1.1896349674120803019 5.3089601905481620392;6.1964858786528917989 7.2493631100966702263 -5.6391777418547670564;6.9930221081461629851 -3.1295452194004882429 -7.8882515698803539195;-3.679604257397844691 -9.5410523083174592074 3.3477665071157569621;1.3218457094108930772 8.5185420280053225639 6.5183569803107221929;9.1595417409821138222 -5.3692882988217069951 -2.8049714894658186459;-2.3836191173183420844 10.710040334008038343 1.5207048722868705681;10.924629876326171996 -1.3457129750499139398 0.20168132831409441019;-8.1877090997416139828 -5.5686742498613925889 5.3657842536014017654;-6.2114884352574541992 -7.2032174693102604124 5.6824319676427093029;-6.7944819497960118326 -3.6447535336493612768 -7.9143227848665285151;-9.3791962885120874205 -3.2414004632714461529 4.7326832809277723513;10.024316543447218564 0.18386883487315333618 -3.0329613444543737089;-5.7519841269721183608 3.5756492944314408611 8.6937768551840655107;-5.4933572691477783323 8.9691293550473059071 3.5751626717940796496;2.467244347206554167 10.52232497361221597 -3.2022147292201257329;7.7126961071174449103 2.4352337184343570975 -7.9627229836673807384;-3.7703235115754396567 5.7750793889165867867 -8.1960896018524067586;2.2032162282753842142 -6.2671911178375649953 -8.9669305175508604577;10.765116783044240023 -1.3347934557755436469 2.1891308980940564766;-1.9798223067646822937 -9.635095333014819019 3.9871377910052214766;5.269881255697764999 -9.1144605011073949186 3.6790599430056403207;-6.5568222602170393998 -5.2885694080916723081 7.334857533596875534;-2.7072095867016234827 -9.7058890382502589489 -3.216499989952716021;-2.0559074194909086053 -5.1536649667836025301 -9.5962526779565013868;0.56127329385722968258 8.7189157366788627712 6.3970912371479791148;-5.4151207376913079727 9.5557138476957206308 -0.72413448217704912135;7.0750299822246693893 -5.0391042426455241454 7.1655149737798149445;-7.6090894720482209479 7.5572003878955102962 -1.2815265760819269936;-2.8095430196244253196 -1.1282499031959769553 -10.713265058510602401;-1.2720761237874389504 5.7857693943015107152 9.3018886887956817588;6.7105115639027372865 -5.4170897546207994466 6.4075878251417153209;3.922152286496146445 -8.1033307052830370054 6.5838491129209462116;7.3785888883300438934 -1.4639122890837168445 -8.1404667812193807208;-8.7368595317631285724 -2.2620704547144319108 6.0408697601016134726;2.094311250164162086 2.754464424621973162 -10.51546998459869009;-2.817361140001460651 3.438257947311156304 10.186302489268591387;0.5478809119420209317 -5.4278782063666399793 9.7844276950490378653;-10.942017667998536368 -2.0259185974857758517 -1.431802475073491232;10.670976282817587588 1.1535127602929018398 3.9462834785672522564;5.3286470813096071808 -7.0813931206440425825 6.2009926580375989147;-0.49551882876513042575 -10.679033580391825708 2.897572117281506543;-2.6847243155352935595 10.378521041983121975 -2.1882693693807824253;7.51333101630582334 -4.2625775974318456107 6.9830921314097924579;5.285767683372553094 7.6600026924328421529 6.0317317314261842398;-5.0123399750661548069 -7.3406587567389394167 -6.5662647555786222142;3.6675191628731238502 -8.702574555249825039 -5.6180616833657550657;-10.135737058026879964 0.96947873733827516496 -4.2313274985387323568;-9.6809554763480516471 -3.9248162650850506594 3.8454524266953749034;11.553395185855050542 0.24791535765608438413 -3.1871214868323192171;8.214845914120626702 -5.9936229616796046216 3.916263694804116291;-3.2777053087988323732 7.8280321977319795579 7.2706270270410744416;6.9665503888268993649 -5.5984596381629172512 6.671078024458801714;-3.1733035208072304378 -1.0280629990303928878 10.520836630795677991;-8.4688426684880990791 -2.9819627566922433104 -5.9490415778294005733;-5.9047558405598916664 -5.5984508777219437192 7.1951968547528588616;-3.3556770038450958182 -2.0914545132652326842 10.325029508677403101;-0.61543322282903090148 -0.6803537302680440213 -8.6798833863354527551;9.6489842413303197333 3.6790829909523896646 -5.2898599448649585852;0.66119660137946600909 0.66157099937806418399 -9.653834039454048721;7.7701639963707043179 -4.1399774101982265151 6.1094570193886461595;-1.5101012231491333093 8.9486379096896033758 6.097235646091402117;-7.0931747552221748876 5.7249921000602457255 -6.7876288164677909265;-8.0339456099375592402 4.2704954859210806362 -6.3677256501115628851;9.0879254945006948674 -3.0506622782138745897 4.2379254786264155541;-4.0081926138322545583 1.7757186145068906136 10.210216161667043266;-0.81256781192492666399 -0.82697089244462396174 -9.8489829162722877243;-0.18769207438749380135 -6.3876022154663800734 9.0778459725771920574;-9.9993205465059311621 5.2173817740738286375 -0.59294048938120769154;-9.0838483900355182499 -0.081999377602771469919 6.4089031091058323852;-7.4578156202895558025 -7.4173797055123209532 4.0476579500123959221;-6.8235736064434586723 -8.6269604535064026152 0.29715588696323003148;-5.1078731402220940438 -8.1307977953171715058 -5.0317757157129614498;-1.9360129362464419955 -3.9420385659318348814 -9.7576628960235467503;-7.2161522042815278155 -7.2816375395954313632 -4.7608373440788716024;-4.7136206083279033052 -2.0228729926803081796 -9.9294874310202434486;-4.4521507976293346331 -5.9198799255393046437 8.2942873845949840472;-3.9294428917251926769 8.4200128082834666543 -6.1241177217934552601;6.9221763885595883892 1.183518442550336891 -8.6112154352954881631;-5.7439144891915532298 4.3568231179644252293 -8.0081267013884147588;4.0146287980738133427 -5.5898941630110359213 -8.7229043446444176624;2.0617930251102554173 5.131378447860630132 10.002712922391499006;7.0214311748298001703 2.0613434324668546971 -8.3656221223604561033;8.6474903506291056487 -0.15287939185598178882 -6.9595377202487220814;-6.2571616897708581817 -4.2929479256465361559 -8.1250346908566939419;2.8980727646497332906 7.809083553604736494 7.6236642177351185978;0.50140834606465345402 -7.7425675648312868304 -8.1504980225884864353;-7.7998561872293450392 -6.3699933496942930944 4.3428646903119272338;-7.9977716148053765721 -6.3629035372478339738 4.5379941204917315645;-6.9963760158128520672 8.7083035743600181178 1.6462719748050258506;6.9973671411092093209 -7.8644424842736500025 2.53293643259955914;-6.5407947437544873281 -0.081469927494354971165 -8.6210190759466449606;4.0002989447552366187 5.4622513607593479179 7.9080717226587129431;-3.7109205914717033892 -5.5182108641921105985 8.2940268144274256201;0.13312698057191729717 0.078960179395623594778 -10.100260266066703352;10.241540465735518239 -2.2290599603748360025 -1.3885546966264341595;5.5556465959415097799 -9.8065917112288456536 0.71293790814418234181;-5.0495911594127163013 1.8953235340574727807 -9.3975309415402197288;1.4033052499146352332 9.9353543012668268375 -3.9407829830225482581;-3.9575435440297330736 9.4842762488431358037 3.1474698485653429536;-9.4644611935244356005 2.0007518628088538648 5.5032995263299024913;-3.9829188300333453476 -5.5193377967650718574 -8.4960333918555548394;-7.4149488968025609736 -7.3982106639408664606 -3.4660875366003836007;-8.5631859934022891423 -4.8915885601679329753 4.3023055809432282359;-6.5642040835350812245 6.8363622112165014499 -6.0020433455029786884;-0.78643367270539110692 9.8983819121905955996 -4.5366372089307649418;1.2109456129131805913 0.2017638095456774916 -10.942257451922651867;10.872389942849789435 -1.368339565724333573 -2.2985082312305533669;0.36704150735638074732 11.907085636854205291 0.85727832301797501913;4.4014956604168675725 -4.9587932368158238461 -8.9168585525373078582;8.9560740374357639126 4.2175026117302047979 4.522320667017805107;-9.0218093940608881098 1.3754348030505680889 -5.2870167604609701328;5.0951728542753782492 5.8579488210364134559 -7.9272888011269371233;-6.2375395619760380939 8.5691412416284649112 -3.9347708900846463109];

% Layer 2
b2 = 0.21197667400981023977;
LW2_1 = [-0.0092803446231389339488 -0.04690488291263826548 -0.0053072207516652617973 0.0050013024962698290551 0.040985728413178872109 -0.012677306642307402743 -0.0044613845385738969476 -0.013224165458918264032 -0.0061528093858842971414 -0.004455156305099914997 0.013269267232336161982 0.0012799767881789658307 -0.0058865262217811650455 6.7445727171813881721e-05 -0.007159090009679651076 -0.0054076113272476210303 -0.017534380845810181027 -0.025496671826199125005 -0.017613774244368468613 -0.0040639789508744523019 0.0073966687948262320809 0.0037568841684872417847 0.010446662079007223295 -0.012139716134389997443 -0.0022641106192894389082 -0.02567828200464363983 -0.054085794594593575302 0.0061942421018933149432 -0.0092612628993187350729 -0.25693234343351789573 0.0033689647435515175655 -0.0037383210936352169462 -0.26399314032395776453 -0.0074668835220527453311 -0.0035526935217753525219 0.014251357760675447198 0.016628952048247297446 -0.003146729320994956329 -0.0074618045347278416993 -0.079133661807734026472 -0.0004840219178361007484 0.018158776083101985099 -0.0018691944731942414064 -0.0042104514527525494644 -0.0015870926332565414053 0.003869945545072962529 0.0060578817455542305348 -0.0078524473070086635296 0.013948439851326807637 0.0025391106022222458341 -0.35074678354932881108 0.020658277878589769577 0.00056169817899797856373 -0.0031281879074236832242 -0.36322019940325805942 -0.019199346194465755078 0.00053301238487102277266 0.0033973884867275500749 -0.013732807285766705091 -0.0047637520787489305574 0.0048762035333273371154 0.047839475005770938643 0.045210860752486821401 -0.00041872313888008692384 -0.0023520138294867288901 0.021528150432487010851 0.29387863389552260074 0.0020545429156436094582 0.0088656426977347223967 0.00012019064937764742525 0.0012585513505142446964 -0.0012525980385098664689 -0.0021164674734958214587 -0.00023790925010300621885 0.0050778415951982748197 -0.0026296795340117985404 0.14401331657888835625 0.0033479801254363210188 0.0093944326861806985024 -0.075979656674802623084 -0.0012996410474607378478 -0.001882097990684164588 -0.053726653989345993234 -0.0016627514026272861847 0.0010349111625680659007 0.0036095593209353664214 0.00079066545264578735452 0.005150327562405083992 0.014743632059227584213 -0.0024240057358014648059 -0.022394294064423180685 0.0045279401289618258566 0.0068727604826090745588 -0.00019926648647173997916 0.0021013753126493178378 -0.0038704380946740927008 -0.0020837651506300678902 0.0088986796187534751568 0.0021062679216833843365 -0.0010802614746869623752 -0.0058602944324702543194 -0.001495586079165365373 0.00074201836098823084013 -0.0032340257973483689351 0.00048382228515923364574 -0.0082754668309979132618 -0.043974447664620913701 0.0088173182525532068504 -0.0068325048517333501763 -0.015134205893889252081 0.0011906510447807128108 0.011641253731298557145 -0.0058138569470383471074 -0.0033948328108456089433 -0.00047544038937112132522 0.0044497055217114812875 -0.00082936810444461824248 0.001029885750497336501 0.001957111559668949733 0.006480449271847258351 -0.0021993051890903713222 -0.0015775757960169915859 -0.0003539176836262129637 -0.0044925338474794684895 0.0014555884205199151778 -0.0081626630580680561294 -0.014060758291063282441 0.042338220256596753588 0.0042298881547203452669 -0.012208047735895372066 -0.0028929328916930704789 -0.0053990836344649144676 -0.0045830625522757110005 0.0036435570405500931901 0.0053914535185771361378 -0.0041249783556403379903 -0.001265790882748460194 0.0031578757647342382657 0.0030769617039514778577 -0.0037334439630870167384 -0.040121783972529807827 0.0011378080773598096657 0.00076190996522341244025 -0.00065647229658704253554 -0.0014250063645621284612 -0.0084157853486676089533 0.0012162729594235380248 -0.002197379280155085067 -0.00029477509848100123596 0.0065882619919443233258 -0.00011491461393608693668 0.0062699067229017059477 0.0054346200924140697017 0.0054767488642104549673 -0.00081633082988087646032 -0.0045031601630062742525 -0.0026386938178900171126 -0.0014670794123572015923 0.0014478359950939232413 -7.8256476608877504242e-05 -0.00733916366048632373 0.0043935370917146734926 0.014392829699593386039 -0.0022252444315586823731 -0.029211718776988929158 -0.0032466495830946293273 0.00057467742258645465332 0.0016267691763300904176 0.0035328411395405901266 -0.0024248171494138937021 -0.0066624970913382649401 0.00050506590397018111607 0.001358342427453140171 -0.00580402293703898009 -0.00063574000424120513317 -0.047798394663283359785 -0.00051182049236689732344 0.0070933717601674968825 -0.0034868875136948645696 -0.010757124236479065349 0.026238471069918518214 -0.0085048649230347692779 0.0001589433871706398267 -0.0012568620996034614128 -0.0045607049748848738427 -0.0026334158490029361578 -0.0013901180533938603794 -0.002065963422640448334 -0.0063666613571079794937 -0.0019056546568108070298 0.0021887698484152075772 -0.0062524702157470005495 0.002464206529966179917 -0.0049357221659736731992 -3.7768389245853527779e-05 0.00061999118895773169813 -0.016510616996310987364 -0.0024630709383218294534 0.00051423540914354590528 0.0018509803449403619807 -0.0002009185437424470535 0.0030709130908339091724 -0.0006752117382183618708 -0.0039987019532384659309 -0.00487470944655562545 0.0015781662627096910111 -0.00065671317697560058213 -0.0022131397077821734001 -0.0037738909072864775147 -0.001184225899266115687 -0.0020312648915878470275 -8.6746395484775759587e-05 0.0058990520537548418387 0.0013601914950874492965 -0.0025547459659326391887 0.006327232142537209808 -0.0090712727313635565379 0.0014270347025545572668 -0.0026567512573063851306 -0.0016595503663045568701 0.00037109581316834889695 -0.0032679585017010054533 -0.0023708313839435704064 -0.008762369638261404553 -0.0021196754848737870726 0.0054934202073601366006 -0.0011062167541970740776 0.0052052154387292335139 -0.40198180246726733511 0.00098793418599215808082 0.0084621953874077036201 -0.0019622552624471187137 0.00069202131697307476144 -0.53924584194738667264 -0.2872586022088580715 0.0015616091706958802176 -0.0096311369005525008374 -0.0013241943071264710655 -0.54192937335761759421 0.00013264568353129168178 -0.0027637229558501179467 0.0042425769835135957245 -0.00089128752411876156769 -0.26354050432670622639 -0.0020739846776561764695 -0.015178782299199429159 -0.35829833040524144971 0.0095024499889915445272 0.0012689861225289931872 -0.0015319157868819682344 -0.00072124668633163045717 0.00059424251452609168876 0.0021871543959720400607 -0.010613315224260328959 -0.02421511126059002969 -0.0019320820463638104739 -0.0023906100715849190261 0.0031076149404697149883 0.0047770059645717982688 0.0042608553726472368772 -0.0015825420241172352687 0.0019581522440526620901 -0.0035112247807724998941 -0.0074514010458036749468 -0.011832121528683009828 -0.00033394837666593307161 -0.0051242400054319755739 0.011663953241462691329 -0.00044793062930396893668 0.0022203632561104726106 -0.010352376140482249037 0.022551504976333472396 0.00047002915067933615043 0.0028736972964461871861 -0.0007605592060753590955 0.0017469903776633219708 -0.014045314349823704442 -0.0027824434376395655415 4.7905325905169302914e-05 0.0030769418686088533844 0.014743774544552152791 -0.012538125840316223514 -0.0059644030927143102533 0.00057759662591528411132 -0.0052312407898398253364 0.1484859900822348977 0.00091195662269186628535 0.00034903507777664063202 0.011418860037960516102 0.020209438072543786657 0.0057504484847304953438 0.0024515271456482042207 -0.001853622710011958814 -0.0011208552607198151232 -0.0007658598907721815216 -0.0021229295250917981294 -0.027378963230272775758 -0.0023118640170346066443 0.44597237054047944582 0.0047789334779096354425 -0.0020026673140470432205 -0.0023619591948948488042 0.0049061318921228887907 0.014517038239808341057 0.0006212296798215973968 -0.0056491349257372621209 -0.00061901918805082182563 0.0074878283806634722899 0.0038553484274320704017 0.59271752387142162544 0.003556474591932107937 -0.014010646866652100642 -0.010498806728969658358 0.0018894726213955258601 -0.056517966490700018156 -0.0094305211137359137852 -0.00057951698780271915061 0.016639412827210365436 -0.004067152617965445402 -0.030441574514723075684 0.017759439389574555035 0.00088760543751061624692 -0.0022603923922794558372 -0.0072803815079991833492 0.0046659239456017555236 0.0036704712265870111099 -0.0065411687070724743379 -0.0017453814614140758434 0.0058666979387149830599 0.007388707079276877164 0.0022877730316917966463 0.00075718426724972250769 0.0018854896153462240207 0.0035406252242938130587 0.002574099314198156907 -0.016097728339553096094 -0.0016920930206167543799 0.052479119400128199091 0.0011494809060190057295 -0.0015873536674270618662 0.00018947309121714617512 -0.010145813611729529932 0.0026616279092052811187 0.0037901153485880058336 0.011394290078617422962 0.0043506573068247660768 8.9316910275688996489e-05 -0.0045114614375895206386 -0.0012670238063028863712 -0.0032271207481052652244 -0.00080033862433295723405 0.0070047126102005894538 0.001410267796261483169 0.0026050136102687406967 0.0053132808075813334897 -0.040317574027168179285 -0.0040140841535384816363 0.00012632731081739216757 0.0020633246230944883928 0.00047602192770044806551 0.0043685239753656589234 0.0015187973551723571355 -0.008629069722607147358 0.41993699083958441198 -0.00083982817736040222666 0.027418852934921449788 -0.0017495363764674731841 0.0067551373543506152905 -0.012090323355281124007 0.0010489914217459749349 0.0018877779416426731119 0.0036044805602838832746 0.37156404748548799155 0.0024547125260853505831 -0.00047726440411339940374 0.26379234139826468475 0.036097242083424914416 -0.019967352038642506573 -0.37297813582269306876 -0.0012759075561837439784 0.0013091972044238589252 -0.0046578131573711449923 0.024122990191105628255 0.041603639868281548642 -0.00010350898327073626136 0.087765533938386777746 0.012166438984522791322 0.59916782607290008933 0.32118733749022199131 -0.017745945865988013018 -0.0011795630087849476048 0.0033514800726092263544 0.0014881486020083720904 -0.049251199248358572269 0.0019541844792428453639 0.60008278292540762067 -0.0013524282734502087941 0.070154721530250582773 -1.1357061101933556557 -1.0517742021678830877 0.0031261282979903222412 -0.021610903923777312341 0.087442528744094250026 -0.0011685789742913422432 0.048841383170979787987 0.060068632768523214094 0.079857973636055012978 0.00081598332047650107366 -0.036624249544304147974 0.0032507128286686321969 0.00092365558134214001407 -0.003708958213778652379 -0.0026085322158891830445 0.015901899486653450766 0.0036055720480258120902 -0.0011343540323342088394 0.12846036590395934485 -0.70556664978552197098 0.0018778857058077552677 -0.7116473635067903647 0.14114292003944822751 0.00049616862462962217899 -0.36245288997479480075 0.0089556387962378362216 -0.0019138429188401400588 0.0074145842026837752506 0.0019396954847808666692 -0.29743079118087839552 -0.0015333969721877218403 0.0018937865638632071612 0.021166015743920917752 0.01600770643143227881 -0.017341298405463525384 0.026733628335805951354 -0.073219710612550656381 0.82141784098400127956 -0.0098225666599320825279 -0.026837112019825862946 0.59775410826545616327 0.17523042805062466476 -0.0017087455601259976794 -0.09046071578913869593 -0.063822358452934990769 -0.86987735563577950337 -0.12363674666753117493 -0.091034037180170099268 0.28412809042750236665 0.016891526161899005076 -0.08655947168150618376 0.25794477110626057303 0.022863261350121167476 0.58159101374777266713 0.44345140855214193465 0.0062557083580786392377 0.0035161999610244143617 -0.097048168970287909674 -0.0088785525820431841076 -0.0038442395594400578102 -0.0055804387562662770977 -0.002050215756482907329 -0.00098314997823270534535 0.0015548400388342134473 0.11771535523919320065 -0.0010119475999714599036 -0.34459300439971590757 -0.0070701019834848817178 -0.55341508119604621019 0.00073219534759956029276 -0.81293191460842317841 -0.75746634567300163976 -0.0017285743124785613381 8.7656756459614270423e-05 0.073269348140927087476 -0.39610947927150252923 0.34176724761395638197 0.0015695004768515520999 -0.0076384680682280549704 0.0016914932181542915827 0.013960931413335764262 -0.11932444359107111098 -0.096970371117020628948 0.055291739726637104124 0.0037426413627674511714 -0.008884818501316249853 -0.12143809636895860904 -0.023003798507306376375 -0.17572310097733651046 0.012097757298005152454 -0.00078027655094939786084 -0.1328780636886402744 0.0040240397909060351966 -0.0016978711945190589488 0.14558419682013312713 -0.17670760217779374335 -0.029870264287271002662 0.57341524997477000269 0.0025244786046271072005 -0.049618670480340423823 0.67793908910143074742 -0.0030546791109989450928];

% Output 1
y1_step1.ymin = -1;
y1_step1.gain = 50.0357940815319;
y1_step1.xoffset = 0;

% ===== SIMULATION ========

% Format Input Arguments
isCellX = iscell(X);
if ~isCellX
    X = {X};
end

% Dimensions
TS = size(X,2); % timesteps
if ~isempty(X)
    Q = size(X{1},1); % samples/series
else
    Q = 0;
end

% Allocate Outputs
Y = cell(1,TS);

% Time loop
for ts=1:TS
    
    % Input 1
    X{1,ts} = X{1,ts}';
    Xp1 = mapminmax_apply(X{1,ts},x1_step1);
    
    % Layer 1
    a1 = tansig_apply(repmat(b1,1,Q) + IW1_1*Xp1);
    
    % Layer 2
    a2 = repmat(b2,1,Q) + LW2_1*a1;
    
    % Output 1
    Y{1,ts} = mapminmax_reverse(a2,y1_step1);
    Y{1,ts} = Y{1,ts}';
end

% Final Delay States
Xf = cell(1,0);
Af = cell(2,0);

% Format Output Arguments
if ~isCellX
    Y = cell2mat(Y);
end
end

% ===== MODULE FUNCTIONS ========

% Map Minimum and Maximum Input Processing Function
function y = mapminmax_apply(x,settings)
y = bsxfun(@minus,x,settings.xoffset);
y = bsxfun(@times,y,settings.gain);
y = bsxfun(@plus,y,settings.ymin);
end

% Sigmoid Symmetric Transfer Function
function a = tansig_apply(n,~)
a = 2 ./ (1 + exp(-2*n)) - 1;
end

% Map Minimum and Maximum Output Reverse-Processing Function
function x = mapminmax_reverse(y,settings)
x = bsxfun(@minus,y,settings.ymin);
x = bsxfun(@rdivide,x,settings.gain);
x = bsxfun(@plus,x,settings.xoffset);
end

